digraph Tree {
node [shape=box] ;
0 [label="X[12] <= 0.5\ngini = 0.5\nsamples = 560\nvalue = [273, 287]"] ;
1 [label="X[30] <= 0.5\ngini = 0.498\nsamples = 526\nvalue = [248, 278]"] ;
0 -> 1 [labeldistance=2.5, labelangle=45, headlabel="True"] ;
2 [label="X[13] <= 0.5\ngini = 0.5\nsamples = 495\nvalue = [242, 253]"] ;
1 -> 2 ;
3 [label="X[63] <= 0.5\ngini = 0.5\nsamples = 488\nvalue = [242, 246]"] ;
2 -> 3 ;
4 [label="X[124] <= 0.5\ngini = 0.5\nsamples = 476\nvalue = [232, 244]"] ;
3 -> 4 ;
5 [label="X[40] <= 0.5\ngini = 0.499\nsamples = 471\nvalue = [227, 244]"] ;
4 -> 5 ;
6 [label="X[78] <= 0.5\ngini = 0.5\nsamples = 456\nvalue = [225, 231]"] ;
5 -> 6 ;
7 [label="X[43] <= 0.5\ngini = 0.5\nsamples = 450\nvalue = [225, 225]"] ;
6 -> 7 ;
8 [label="X[45] <= 0.5\ngini = 0.5\nsamples = 438\nvalue = [223, 215]"] ;
7 -> 8 ;
9 [label="X[98] <= 0.5\ngini = 0.5\nsamples = 433\nvalue = [218, 215]"] ;
8 -> 9 ;
10 [label="X[51] <= 0.5\ngini = 0.5\nsamples = 430\nvalue = [215, 215]"] ;
9 -> 10 ;
11 [label="X[112] <= 0.5\ngini = 0.5\nsamples = 427\nvalue = [212, 215]"] ;
10 -> 11 ;
12 [label="X[26] <= 0.5\ngini = 0.5\nsamples = 415\nvalue = [209, 206]"] ;
11 -> 12 ;
13 [label="X[17] <= 0.5\ngini = 0.5\nsamples = 389\nvalue = [192, 197]"] ;
12 -> 13 ;
14 [label="X[123] <= 0.5\ngini = 0.5\nsamples = 386\nvalue = [192, 194]"] ;
13 -> 14 ;
15 [label="X[46] <= 0.5\ngini = 0.5\nsamples = 383\nvalue = [192, 191]"] ;
14 -> 15 ;
16 [label="X[101] <= 0.5\ngini = 0.5\nsamples = 380\nvalue = [189, 191]"] ;
15 -> 16 ;
17 [label="X[37] <= 0.5\ngini = 0.5\nsamples = 378\nvalue = [187, 191]"] ;
16 -> 17 ;
18 [label="X[52] <= 0.5\ngini = 0.5\nsamples = 375\nvalue = [187, 188]"] ;
17 -> 18 ;
19 [label="X[121] <= 0.5\ngini = 0.5\nsamples = 369\nvalue = [182, 187]"] ;
18 -> 19 ;
20 [label="X[56] <= 0.5\ngini = 0.5\nsamples = 367\nvalue = [182, 185]"] ;
19 -> 20 ;
21 [label="X[81] <= 0.5\ngini = 0.5\nsamples = 365\nvalue = [182, 183]"] ;
20 -> 21 ;
22 [label="X[60] <= 0.5\ngini = 0.5\nsamples = 363\nvalue = [182, 181]"] ;
21 -> 22 ;
23 [label="X[90] <= 0.5\ngini = 0.5\nsamples = 360\nvalue = [179, 181]"] ;
22 -> 23 ;
24 [label="X[118] <= 0.5\ngini = 0.5\nsamples = 355\nvalue = [178, 177]"] ;
23 -> 24 ;
25 [label="X[14] <= 0.5\ngini = 0.5\nsamples = 354\nvalue = [178, 176]"] ;
24 -> 25 ;
26 [label="X[24] <= 0.5\ngini = 0.5\nsamples = 353\nvalue = [178, 175]"] ;
25 -> 26 ;
27 [label="X[58] <= 0.5\ngini = 0.5\nsamples = 352\nvalue = [178, 174]"] ;
26 -> 27 ;
28 [label="X[117] <= 0.5\ngini = 0.5\nsamples = 351\nvalue = [178, 173]"] ;
27 -> 28 ;
29 [label="X[7] <= 0.5\ngini = 0.5\nsamples = 349\nvalue = [176, 173]"] ;
28 -> 29 ;
30 [label="X[115] <= 0.5\ngini = 0.5\nsamples = 348\nvalue = [175, 173]"] ;
29 -> 30 ;
31 [label="X[55] <= 0.5\ngini = 0.5\nsamples = 347\nvalue = [174, 173]"] ;
30 -> 31 ;
32 [label="X[66] <= 0.5\ngini = 0.5\nsamples = 344\nvalue = [173, 171]"] ;
31 -> 32 ;
33 [label="X[104] <= 0.5\ngini = 0.5\nsamples = 341\nvalue = [172, 169]"] ;
32 -> 33 ;
34 [label="X[108] <= 0.5\ngini = 0.5\nsamples = 338\nvalue = [170, 168]"] ;
33 -> 34 ;
35 [label="gini = 0.5\nsamples = 333\nvalue = [167, 166]"] ;
34 -> 35 ;
36 [label="gini = 0.48\nsamples = 5\nvalue = [3, 2]"] ;
34 -> 36 ;
37 [label="gini = 0.444\nsamples = 3\nvalue = [2, 1]"] ;
33 -> 37 ;
38 [label="gini = 0.444\nsamples = 3\nvalue = [1, 2]"] ;
32 -> 38 ;
39 [label="gini = 0.444\nsamples = 3\nvalue = [1, 2]"] ;
31 -> 39 ;
40 [label="gini = 0.0\nsamples = 1\nvalue = [1, 0]"] ;
30 -> 40 ;
41 [label="gini = 0.0\nsamples = 1\nvalue = [1, 0]"] ;
29 -> 41 ;
42 [label="gini = 0.0\nsamples = 2\nvalue = [2, 0]"] ;
28 -> 42 ;
43 [label="gini = 0.0\nsamples = 1\nvalue = [0, 1]"] ;
27 -> 43 ;
44 [label="gini = 0.0\nsamples = 1\nvalue = [0, 1]"] ;
26 -> 44 ;
45 [label="gini = 0.0\nsamples = 1\nvalue = [0, 1]"] ;
25 -> 45 ;
46 [label="gini = 0.0\nsamples = 1\nvalue = [0, 1]"] ;
24 -> 46 ;
47 [label="gini = 0.32\nsamples = 5\nvalue = [1, 4]"] ;
23 -> 47 ;
48 [label="gini = 0.0\nsamples = 3\nvalue = [3, 0]"] ;
22 -> 48 ;
49 [label="gini = 0.0\nsamples = 2\nvalue = [0, 2]"] ;
21 -> 49 ;
50 [label="gini = 0.0\nsamples = 2\nvalue = [0, 2]"] ;
20 -> 50 ;
51 [label="gini = 0.0\nsamples = 2\nvalue = [0, 2]"] ;
19 -> 51 ;
52 [label="X[104] <= 0.5\ngini = 0.278\nsamples = 6\nvalue = [5, 1]"] ;
18 -> 52 ;
53 [label="gini = 0.0\nsamples = 5\nvalue = [5, 0]"] ;
52 -> 53 ;
54 [label="gini = 0.0\nsamples = 1\nvalue = [0, 1]"] ;
52 -> 54 ;
55 [label="gini = 0.0\nsamples = 3\nvalue = [0, 3]"] ;
17 -> 55 ;
56 [label="gini = 0.0\nsamples = 2\nvalue = [2, 0]"] ;
16 -> 56 ;
57 [label="gini = 0.0\nsamples = 3\nvalue = [3, 0]"] ;
15 -> 57 ;
58 [label="gini = 0.0\nsamples = 3\nvalue = [0, 3]"] ;
14 -> 58 ;
59 [label="gini = 0.0\nsamples = 3\nvalue = [0, 3]"] ;
13 -> 59 ;
60 [label="X[73] <= 0.5\ngini = 0.453\nsamples = 26\nvalue = [17, 9]"] ;
12 -> 60 ;
61 [label="X[118] <= 0.5\ngini = 0.435\nsamples = 25\nvalue = [17, 8]"] ;
60 -> 61 ;
62 [label="X[111] <= 0.5\ngini = 0.413\nsamples = 24\nvalue = [17, 7]"] ;
61 -> 62 ;
63 [label="X[106] <= 0.5\ngini = 0.386\nsamples = 23\nvalue = [17, 6]"] ;
62 -> 63 ;
64 [label="X[90] <= 0.5\ngini = 0.351\nsamples = 22\nvalue = [17, 5]"] ;
63 -> 64 ;
65 [label="X[91] <= 0.5\ngini = 0.308\nsamples = 21\nvalue = [17, 4]"] ;
64 -> 65 ;
66 [label="X[54] <= 0.5\ngini = 0.266\nsamples = 19\nvalue = [16, 3]"] ;
65 -> 66 ;
67 [label="X[3] <= 0.5\ngini = 0.142\nsamples = 13\nvalue = [12, 1]"] ;
66 -> 67 ;
68 [label="gini = 0.0\nsamples = 7\nvalue = [7, 0]"] ;
67 -> 68 ;
69 [label="gini = 0.278\nsamples = 6\nvalue = [5, 1]"] ;
67 -> 69 ;
70 [label="gini = 0.444\nsamples = 6\nvalue = [4, 2]"] ;
66 -> 70 ;
71 [label="gini = 0.5\nsamples = 2\nvalue = [1, 1]"] ;
65 -> 71 ;
72 [label="gini = 0.0\nsamples = 1\nvalue = [0, 1]"] ;
64 -> 72 ;
73 [label="gini = 0.0\nsamples = 1\nvalue = [0, 1]"] ;
63 -> 73 ;
74 [label="gini = 0.0\nsamples = 1\nvalue = [0, 1]"] ;
62 -> 74 ;
75 [label="gini = 0.0\nsamples = 1\nvalue = [0, 1]"] ;
61 -> 75 ;
76 [label="gini = 0.0\nsamples = 1\nvalue = [0, 1]"] ;
60 -> 76 ;
77 [label="X[0] <= 0.5\ngini = 0.375\nsamples = 12\nvalue = [3, 9]"] ;
11 -> 77 ;
78 [label="X[3] <= 0.5\ngini = 0.18\nsamples = 10\nvalue = [1, 9]"] ;
77 -> 78 ;
79 [label="gini = 0.0\nsamples = 9\nvalue = [0, 9]"] ;
78 -> 79 ;
80 [label="gini = 0.0\nsamples = 1\nvalue = [1, 0]"] ;
78 -> 80 ;
81 [label="gini = 0.0\nsamples = 2\nvalue = [2, 0]"] ;
77 -> 81 ;
82 [label="gini = 0.0\nsamples = 3\nvalue = [3, 0]"] ;
10 -> 82 ;
83 [label="gini = 0.0\nsamples = 3\nvalue = [3, 0]"] ;
9 -> 83 ;
84 [label="gini = 0.0\nsamples = 5\nvalue = [5, 0]"] ;
8 -> 84 ;
85 [label="X[10] <= 0.5\ngini = 0.278\nsamples = 12\nvalue = [2, 10]"] ;
7 -> 85 ;
86 [label="X[81] <= 0.5\ngini = 0.165\nsamples = 11\nvalue = [1, 10]"] ;
85 -> 86 ;
87 [label="gini = 0.0\nsamples = 9\nvalue = [0, 9]"] ;
86 -> 87 ;
88 [label="X[60] <= 0.5\ngini = 0.5\nsamples = 2\nvalue = [1, 1]"] ;
86 -> 88 ;
89 [label="gini = 0.0\nsamples = 1\nvalue = [0, 1]"] ;
88 -> 89 ;
90 [label="gini = 0.0\nsamples = 1\nvalue = [1, 0]"] ;
88 -> 90 ;
91 [label="gini = 0.0\nsamples = 1\nvalue = [1, 0]"] ;
85 -> 91 ;
92 [label="gini = 0.0\nsamples = 6\nvalue = [0, 6]"] ;
6 -> 92 ;
93 [label="X[24] <= 0.5\ngini = 0.231\nsamples = 15\nvalue = [2, 13]"] ;
5 -> 93 ;
94 [label="X[117] <= 0.5\ngini = 0.133\nsamples = 14\nvalue = [1, 13]"] ;
93 -> 94 ;
95 [label="gini = 0.0\nsamples = 12\nvalue = [0, 12]"] ;
94 -> 95 ;
96 [label="gini = 0.5\nsamples = 2\nvalue = [1, 1]"] ;
94 -> 96 ;
97 [label="gini = 0.0\nsamples = 1\nvalue = [1, 0]"] ;
93 -> 97 ;
98 [label="gini = 0.0\nsamples = 5\nvalue = [5, 0]"] ;
4 -> 98 ;
99 [label="X[37] <= 0.5\ngini = 0.278\nsamples = 12\nvalue = [10, 2]"] ;
3 -> 99 ;
100 [label="X[112] <= 0.5\ngini = 0.165\nsamples = 11\nvalue = [10, 1]"] ;
99 -> 100 ;
101 [label="gini = 0.0\nsamples = 8\nvalue = [8, 0]"] ;
100 -> 101 ;
102 [label="gini = 0.444\nsamples = 3\nvalue = [2, 1]"] ;
100 -> 102 ;
103 [label="gini = 0.0\nsamples = 1\nvalue = [0, 1]"] ;
99 -> 103 ;
104 [label="gini = 0.0\nsamples = 7\nvalue = [0, 7]"] ;
2 -> 104 ;
105 [label="X[53] <= 0.5\ngini = 0.312\nsamples = 31\nvalue = [6, 25]"] ;
1 -> 105 ;
106 [label="X[22] <= 0.5\ngini = 0.278\nsamples = 30\nvalue = [5, 25]"] ;
105 -> 106 ;
107 [label="X[98] <= 0.5\ngini = 0.238\nsamples = 29\nvalue = [4, 25]"] ;
106 -> 107 ;
108 [label="X[70] <= 0.5\ngini = 0.147\nsamples = 25\nvalue = [2, 23]"] ;
107 -> 108 ;
109 [label="X[95] <= 0.5\ngini = 0.083\nsamples = 23\nvalue = [1, 22]"] ;
108 -> 109 ;
110 [label="gini = 0.0\nsamples = 20\nvalue = [0, 20]"] ;
109 -> 110 ;
111 [label="gini = 0.444\nsamples = 3\nvalue = [1, 2]"] ;
109 -> 111 ;
112 [label="gini = 0.5\nsamples = 2\nvalue = [1, 1]"] ;
108 -> 112 ;
113 [label="gini = 0.5\nsamples = 4\nvalue = [2, 2]"] ;
107 -> 113 ;
114 [label="gini = 0.0\nsamples = 1\nvalue = [1, 0]"] ;
106 -> 114 ;
115 [label="gini = 0.0\nsamples = 1\nvalue = [1, 0]"] ;
105 -> 115 ;
116 [label="X[69] <= 0.5\ngini = 0.389\nsamples = 34\nvalue = [25, 9]"] ;
0 -> 116 [labeldistance=2.5, labelangle=-45, headlabel="False"] ;
117 [label="X[65] <= 0.5\ngini = 0.227\nsamples = 23\nvalue = [20, 3]"] ;
116 -> 117 ;
118 [label="X[111] <= 0.5\ngini = 0.091\nsamples = 21\nvalue = [20, 1]"] ;
117 -> 118 ;
119 [label="gini = 0.0\nsamples = 20\nvalue = [20, 0]"] ;
118 -> 119 ;
120 [label="gini = 0.0\nsamples = 1\nvalue = [0, 1]"] ;
118 -> 120 ;
121 [label="gini = 0.0\nsamples = 2\nvalue = [0, 2]"] ;
117 -> 121 ;
122 [label="X[50] <= 0.5\ngini = 0.496\nsamples = 11\nvalue = [5, 6]"] ;
116 -> 122 ;
123 [label="X[85] <= 0.5\ngini = 0.494\nsamples = 9\nvalue = [5, 4]"] ;
122 -> 123 ;
124 [label="X[117] <= 0.5\ngini = 0.469\nsamples = 8\nvalue = [5, 3]"] ;
123 -> 124 ;
125 [label="X[97] <= 0.5\ngini = 0.408\nsamples = 7\nvalue = [5, 2]"] ;
124 -> 125 ;
126 [label="X[86] <= 0.5\ngini = 0.32\nsamples = 5\nvalue = [4, 1]"] ;
125 -> 126 ;
127 [label="gini = 0.0\nsamples = 2\nvalue = [2, 0]"] ;
126 -> 127 ;
128 [label="gini = 0.444\nsamples = 3\nvalue = [2, 1]"] ;
126 -> 128 ;
129 [label="gini = 0.5\nsamples = 2\nvalue = [1, 1]"] ;
125 -> 129 ;
130 [label="gini = 0.0\nsamples = 1\nvalue = [0, 1]"] ;
124 -> 130 ;
131 [label="gini = 0.0\nsamples = 1\nvalue = [0, 1]"] ;
123 -> 131 ;
132 [label="gini = 0.0\nsamples = 2\nvalue = [0, 2]"] ;
122 -> 132 ;
}